0.414669901276313
0.345552692420879
0.201821353753186
-0.458413133052908
-0.567035892291748
0.154434382361962
-0.198289913493899
0.362461263704675
0.132128287227001
0.276762305652233
0.0265454413106437
-0.107996235968848
0.133218250323231
-0.217676461845078
0.230091126704420
-0.0872334284535326
0.147387749366653
-0.495977065633134
0.172369223385285
-0.124082856135780
0.493395584237483
-0.368563973519640
0.271685234442671
0.0687162799314636
0.257039297211459
0.0808112581806268
0.000272436661629013
0.168959057097132
0.403362332439066
0.0942420562787463
0.518026473433590
0.377854775908423
-0.290741543317949
0.228622816142241
0.371182307251468
0.187607679009845
-0.301574371459888
-0.432221237371892
0.308613921522593
-0.340894393062577
0.366231402582518
-0.258593488744432
-0.249580068404169
0.182174615967057
-0.398241242023758
0.0708522427077645
-0.0112515069989350
0.179919401972525
-0.305874510532661
0.334027434518954
0.220368164315002
-0.202925988165523
-0.0722521768552289
-0.0710423751025403
-0.00143585393984336
-0.166526528374262
0.268013287104317
-0.290680242413887
-0.205581970901361
-0.0417921306707399
-0.170943307793627
0.262546512068012
0.333167494181698
-0.174758063045028